FANN_FLO_2.1
num_layers=4
learning_rate=0.700000
connection_rate=1.000000
network_type=0
learning_momentum=0.000000
training_algorithm=2
train_error_function=1
train_stop_function=0
cascade_output_change_fraction=0.010000
quickprop_decay=-0.000100
quickprop_mu=1.750000
rprop_increase_factor=1.200000
rprop_decrease_factor=0.500000
rprop_delta_min=0.000000
rprop_delta_max=50.000000
rprop_delta_zero=0.100000
cascade_output_stagnation_epochs=12
cascade_candidate_change_fraction=0.010000
cascade_candidate_stagnation_epochs=12
cascade_max_out_epochs=150
cascade_max_cand_epochs=150
cascade_num_candidate_groups=2
bit_fail_limit=3.49999999999999977796e-01
cascade_candidate_limit=1.00000000000000000000e+03
cascade_weight_multiplier=4.00000000000000022204e-01
cascade_activation_functions_count=10
cascade_activation_functions=3 5 7 8 10 11 14 15 16 17 
cascade_activation_steepnesses_count=4
cascade_activation_steepnesses=2.50000000000000000000e-01 5.00000000000000000000e-01 7.50000000000000000000e-01 1.00000000000000000000e+00 
layer_sizes=4 6 4 2 
scale_included=0
neurons (num_inputs, activation_function, activation_steepness)=(0, 0, 0.00000000000000000000e+00) (0, 0, 0.00000000000000000000e+00) (0, 0, 0.00000000000000000000e+00) (0, 0, 0.00000000000000000000e+00) (4, 5, 5.00000000000000000000e-01) (4, 5, 5.00000000000000000000e-01) (4, 5, 5.00000000000000000000e-01) (4, 5, 5.00000000000000000000e-01) (4, 5, 5.00000000000000000000e-01) (0, 5, 0.00000000000000000000e+00) (6, 5, 5.00000000000000000000e-01) (6, 5, 5.00000000000000000000e-01) (6, 5, 5.00000000000000000000e-01) (0, 5, 0.00000000000000000000e+00) (4, 5, 5.00000000000000000000e-01) (0, 5, 0.00000000000000000000e+00) 
connections (connected_to_neuron, weight)=(0, -3.08491182936067920295e-01) (1, 5.45043714248662714006e-01) (2, 7.22385375704845844602e-01) (3, -7.09299170631701225709e-01) (0, 1.76360843182823412434e+00) (1, 1.19904083762844493322e+00) (2, 3.28730682528412879173e-02) (3, -1.02072557035454994367e-01) (0, 1.98073982161479422714e+00) (1, 1.57171645807404503081e+00) (2, -5.06549263311360076223e-01) (3, 8.48366388797830661694e-01) (0, 2.65421458153096390120e+00) (1, 1.85690203126016117885e+00) (2, -2.67518160181849873336e-01) (3, -2.72691132898578825206e-01) (0, 7.69497598314665154362e+00) (1, 3.15294367850553713950e+00) (2, -4.01001959858508172374e+01) (3, -8.71990586251627952663e+00) (4, -1.23765256718932903368e+00) (5, 1.83343481439095012941e-01) (6, -8.32742180036259549425e-01) (7, -3.55154723421271634187e-01) (8, 3.05532505206571991518e-01) (9, 2.97673738730539538810e-01) (4, 2.10934332037828964346e+00) (5, 1.83945019045294059709e-03) (6, -3.07997144436331318218e+01) (7, -1.48750815389737267580e+00) (8, -1.49812375064489753385e+01) (9, 9.62409678017566161401e-01) (4, 5.80331323970944712443e+00) (5, 8.76364793844947809198e-01) (6, 7.25988817962930088612e+00) (7, 2.24118544230040122045e+01) (8, 4.87755397982219188191e-03) (9, 1.39578613255536693183e-01) (10, 5.70904665004512312798e-01) (11, 7.77252917612544225179e-01) (12, 1.12146080722928731532e+00) (13, 1.98320464550892361366e-01) 
