SVM-light Version V6.02
0 # kernel type
3 # kernel parameter -d 
1 # kernel parameter -g 
1 # kernel parameter -s 
1 # kernel parameter -r 
empty# kernel parameter -u 
6 # highest feature index 
50 # number of training documents 
27 # number of support vectors plus 1 
-19.258997 # threshold b, each following line is a SV (starting with alpha*y)
-0.20000000000000001110223024625157 1:20.567026 2:7.9310532 3:4.5788898 4:43.746979 5:67.895355 6:1 #
0.20000000000000001110223024625157 1:15.969136 2:14.599192 3:-11.69768 4:-0.58543646 5:4.8956714 6:1 #
-0.20000000000000001110223024625157 1:78.589005 2:67.470963 3:-19.021244 4:-14.292461 5:-12.725048 6:1 #
0.20000000000000001110223024625157 1:2.5501351 2:12.53236 3:33.92907 4:68.479645 5:43.06884 6:1 #
-0.20000000000000001110223024625157 1:11.441206 2:0.89218801 3:0.33149299 4:7.063972 5:11.611459 6:1 #
0.20000000000000001110223024625157 1:16.685795 2:15.077672 3:-2.7375977 4:6.063765 5:0.01275729 6:1 #
-0.1158798908951474970763229066506 1:0.23040672 2:4.3419209 3:-0.68396014 4:17.35425 5:7.2845421 6:1 #
0.20000000000000001110223024625157 1:22.206739 2:1.3902546 3:14.537362 4:14.467642 5:19.062775 6:1 #
-0.20000000000000001110223024625157 1:30.984545 2:-0.80288887 3:13.944411 4:-21.239798 5:57.354355 6:1 #
0.20000000000000001110223024625157 1:21.968449 2:4.0240932 3:-9.0383081 4:16.914648 5:9.1076365 6:1 #
0.18079003336754345676595789882413 1:53.177464 2:39.653374 3:-9.6878424 4:-6.5109954 5:-3.0756681 6:1 #
-0.20000000000000001110223024625157 1:21.936035 2:2.2849967 3:-1.5320786 4:9.5064039 5:7.3336983 6:1 #
-0.14683133671548986853849783074111 1:25.273588 2:3.894583 3:1.9644547 4:-14.07 5:32.71513 6:1 #
0.20000000000000001110223024625157 1:27.713263 2:1.7946118 3:14.645286 4:-21.270395 5:51.012226 6:1 #
-0.20000000000000001110223024625157 1:0.51527989 2:8.0418282 3:20.241039 4:52.70105 5:17.17485 6:1 #
-0.20000000000000001110223024625157 1:13.622725 2:-0.069325261 3:-2.6125202 4:6.961988 5:7.4916153 6:1 #
0.20000000000000001110223024625157 1:16.006361 2:-5.0924315 3:-2.165447 4:10.760278 5:13.873637 6:1 #
-0.20000000000000001110223024625157 1:12.574746 2:2.6603651 3:-1.7119844 4:10.60637 5:14.886553 6:1 #
0.087770553671716433630223264117376 1:15.532211 2:14.684239 3:26.961775 4:56.4632 5:60.361015 6:1 #
0.20000000000000001110223024625157 1:16.466923 2:5.5844889 3:-7.1951571 4:6.5713649 5:8.4390593 6:1 #
-0.20000000000000001110223024625157 1:12.278574 2:3.3970046 3:-8.3257418 4:14.134491 5:15.051562 6:1 #
-0.20000000000000001110223024625157 1:10.940839 2:7.2840524 3:14.131089 4:13.507961 5:11.920043 6:1 #
0.20000000000000001110223024625157 1:18.200813 2:4.6235404 3:-12.616773 4:6.4301634 5:15.172351 6:1 #
0.041413185084039821903800770996895 1:35.899315 2:1.2262979 3:31.013603 4:-40.615658 5:127.66432 6:1 #
0.15628658383191584846372279571369 1:19.880608 2:6.6082273 3:-10.942497 4:5.6748452 5:13.740047 6:1 #
-0.0035491283445779897576244366064202 1:19.880608 2:6.6082273 3:-10.942497 4:5.6748452 5:13.740047 6:1 #
